{
    "w1": [
        [
            -1.7288813867403054,
            1.6581539349698402,
            0.5250145104073348,
            0.8839342958555555,
            -1.9035506927191452,
            0.30636481622650547,
            -6.831655699120493,
            -18.39055291757917,
            4.904290240329505,
            -9.271348510097376,
            -1.2351472142922129,
            1.4312143519868383,
            0.5560944672619027,
            0.39533300902484564,
            0.27325789874088524,
            0.20395061430823025,
            -0.18587314041083428,
            -0.9649879400882263,
            5.531177515148279,
            -1.0292098969220818,
            -1.3923046674223427
        ],
        [
            -0.7681728780395262,
            -3.870255266787971,
            -1.4491039880927719,
            4.177830946528408,
            4.621484751893128,
            -4.542815492497745,
            10.32543595596295,
            8.420045994103537,
            2.6642306964951596,
            6.56918149487004,
            -1.0602216045294373,
            -3.9536256928097795,
            -1.1762913279623695,
            4.366992901588466,
            -0.20963863933145394,
            -0.32540835114198663,
            -0.12841393851899383,
            -5.492774556189834,
            -1.001384265899152,
            3.7852941503927457,
            0.6611189240728552
        ],
        [
            -7.174021372958786,
            1.400599512951425,
            -0.4266521885610256,
            5.133265606682491,
            5.506344283217782,
            4.886724220210593,
            1.645500368089109,
            -7.025455527637917,
            3.2191777534255905,
            -4.044167880256807,
            -7.195224114633255,
            1.998784875714156,
            0.48688309276318265,
            5.27502297244414,
            0.16414291029519107,
            -0.8030910104933282,
            0.4313804538922603,
            -5.27316439484332,
            -3.7566543257785003,
            8.477534038527395,
            0.639983937041462
        ],
        [
            0.34883018744326677,
            -0.2849863357015869,
            0.29299295337759834,
            0.12177138853737286,
            0.07298679237574952,
            -0.3411099582613722,
            0.335504899617232,
            -0.4609843502112651,
            0.09403677907557902,
            0.1624093619937835,
            -0.46301244146209564,
            -0.12768777525859082,
            -0.1252159835432345,
            -0.4798257193224149,
            0.11157948328370051,
            0.3109309184408561,
            -0.0670915530704262,
            -0.387418936652877,
            -0.11008709432353564,
            -0.24137942167284432,
            -0.03916031359742923
        ],
        [
            -2.706005858340385,
            2.118001680762342,
            -0.5529615659700159,
            -1.1435235416044311,
            -3.2411582808487145,
            1.185642360987015,
            -2.058298320714836,
            2.6768611855741082,
            -2.628074058460877,
            -16.682622767611125,
            -2.5140726058129133,
            1.630943737884855,
            -0.5286201871223694,
            -2.2445685299489906,
            0.2283765173036447,
            -0.29484716090038754,
            0.05316770208737375,
            -6.096380477746082,
            1.4030083232472987,
            13.098387098047315,
            -0.300776695189131
        ],
        [
            0.6581225884543561,
            1.5205471671587134,
            2.1504168633952996,
            4.654740206476951,
            -1.873052646940912,
            -5.047551787373998,
            0.3541717216621766,
            4.055010815562747,
            2.251751932088662,
            6.693385255524463,
            1.1883083278839717,
            1.578059786851159,
            2.513355100865012,
            4.157474068425572,
            -0.6722190884058873,
            -0.06367522960829494,
            -0.32552191122932195,
            3.9939772797491977,
            -4.294630191831382,
            -0.44046080968331036,
            -1.094107122498983
        ],
        [
            1.469175373458144,
            -3.253122981118424,
            -1.719311989950331,
            -6.40980236878163,
            -4.043560025711144,
            0.8823774052633923,
            9.035266572850556,
            6.681221868433928,
            -9.437279195315256,
            2.2589471181408305,
            1.6803284585635532,
            -3.849157519309932,
            -1.6325693846275606,
            -6.589798886480617,
            0.46430034402657683,
            -0.030361513590308545,
            0.14763772890676147,
            -4.07629268668628,
            0.5305794356830618,
            12.056215172344166,
            -0.5169059407022146
        ],
        [
            1.4480320595001177,
            -2.208085272189665,
            -0.27898259240087664,
            -2.533058080220762,
            0.8511607602042579,
            -9.764427721272332,
            -9.160749369601792,
            13.391148628276074,
            -1.000828421248277,
            -2.9154083127329953,
            0.8557791759435668,
            -1.6457400067176027,
            -0.30096769675929863,
            -1.9878917251591957,
            0.17702239598398106,
            0.31749701130661506,
            -0.24730384445042577,
            7.784655005906673,
            3.7039669884928674,
            -10.886596819115578,
            -0.592283172992779
        ],
        [
            0.36989703490683457,
            -0.9269895769977643,
            1.4353971844083522,
            -0.9189247902526356,
            0.5796982827495378,
            3.8287860470632675,
            -10.698568745653235,
            7.513617932272146,
            -2.1321430552596734,
            4.039943028015285,
            0.7996571411648891,
            -1.2598660769140175,
            0.17796803768131064,
            -0.13522806445711133,
            -0.40331142093870365,
            0.251571391875649,
            0.4770465916912808,
            4.121257951355245,
            3.3150188360033117,
            -8.32120688909557,
            1.574753759548783
        ],
        [
            -0.7110651477109375,
            0.12542939048364043,
            -0.5896078039664423,
            0.2673559335254196,
            -0.4352730724883037,
            6.487551715898714,
            20.427751989311307,
            15.330201791321475,
            13.15277545820221,
            7.146072761039827,
            -0.02666271508919306,
            0.6604676263113334,
            -0.7570078470022665,
            0.30349934360267233,
            -0.07899645913443391,
            -0.4862472337867583,
            -0.08369437436465799,
            -3.3891318184900388,
            -2.6195783692259575,
            6.998409959341841,
            3.255449978243315
        ],
        [
            -1.3900516766017392,
            -4.415059956263419,
            -1.821919437885557,
            2.8343642998038403,
            -1.1390651730904002,
            -9.146093449281869,
            7.383148679119248,
            17.51946070069515,
            -4.02134485256665,
            6.184946171190155,
            -1.5870040118694748,
            -4.516004072983488,
            -1.3858185915330856,
            2.6332383068304117,
            -0.14008491188802952,
            -0.0694639911223893,
            0.048697308296161465,
            0.9591362759830515,
            -0.0160311834831142,
            -2.80705429440427,
            0.21036055985257804
        ],
        [
            2.8232615454247565,
            0.05110657150386832,
            1.2412669816670419,
            4.395882047212016,
            -0.8284128932730783,
            6.728628506534439,
            -11.22293211043056,
            -1.148959529380839,
            -8.29692511281346,
            -0.1797209125219969,
            2.929930773239749,
            -0.22158719494562584,
            1.663759399322197,
            4.508958872815959,
            -0.020881561989819185,
            0.3548511893042867,
            0.013829686030319387,
            0.8774055232201822,
            2.3667573505384154,
            -5.397540277294674,
            0.4926827119727709
        ],
        [
            1.1704734655629034,
            -1.015530690462563,
            -0.811665823419252,
            2.79908675083972,
            0.1228640265916463,
            7.508739396068884,
            14.820120307631914,
            8.925203666338758,
            2.5662641590999162,
            11.044818519605196,
            1.6407408320923498,
            -0.8863237127522937,
            -0.26092135345253126,
            2.5317102239188563,
            0.4329886946274667,
            -0.2670775688537188,
            -0.659920121270446,
            -0.3925416231935793,
            -4.159496436577067,
            1.074041192215001,
            -1.062653664474223
        ],
        [
            2.4356394594210977,
            0.6891867843764818,
            0.10656033197041163,
            3.3868003504047555,
            -2.3083380394071957,
            3.9869642244017798,
            11.498550243838084,
            -14.345696545866554,
            -7.115720543395833,
            -1.7319114107153397,
            2.5542840757028262,
            1.0513271975307112,
            0.3182902781060155,
            3.4240095245965563,
            -0.0627665906828487,
            -0.29984732648781587,
            0.3582604473118045,
            0.6122460693962525,
            -1.0362367291504724,
            -3.6508453145866726,
            1.2643488681954917
        ],
        [
            0.6677954948626343,
            -0.849538913129303,
            -2.067632333126381,
            -6.780424571490436,
            -7.055606051548136,
            -1.999970009626579,
            14.574098583471276,
            -15.228589564223116,
            -4.039957568176223,
            -11.69098900161234,
            0.04654234569752506,
            -0.6888245684234438,
            -2.827226034543508,
            -7.099749548682191,
            0.29198991703746463,
            -0.33655051595362534,
            -0.36333797389305533,
            -3.373117345801852,
            -0.35418404274342474,
            14.824313382566409,
            -0.6193179319560154
        ],
        [
            -0.09341288969276992,
            -0.3242275159285332,
            -0.5293901665296101,
            0.09853598237759155,
            -0.027042064752990463,
            -0.20455243405966966,
            0.14822116596051224,
            0.09718230430216901,
            -0.0011691988078071044,
            0.2777613689577066,
            0.31686848320088334,
            0.5306395861473222,
            0.15207323550992413,
            -0.22914043208922447,
            -0.07939919751651119,
            0.021714378298780694,
            0.10636668357066809,
            0.10254994628649934,
            -0.35066264727016083,
            -0.37238049490125813,
            -0.40347549612263744
        ],
        [
            -3.300767365047425,
            1.049426230801264,
            1.4190397861565938,
            -2.104967281989393,
            -2.2433134376322053,
            -8.008347353821579,
            -1.1766363470311045,
            2.2348631971045156,
            8.787521086983293,
            1.4243839637406925,
            -2.7831331590772583,
            1.1527887483787398,
            0.6374870267465539,
            -1.1450041501659716,
            -0.22575921660476164,
            -0.2606502814187147,
            -0.4203311266935799,
            2.197894614155301,
            -2.1714706197437814,
            3.885116172472459,
            -0.061649068152691035
        ],
        [
            2.9018834942069436,
            -5.750827435011162,
            1.3191234533688363,
            -1.4899923588088158,
            0.28805328092021965,
            -0.0483632463818461,
            7.465267431834181,
            -8.3822841623205,
            -6.584578471037421,
            -1.2037070485568053,
            2.9915342248426624,
            -5.559822681397891,
            2.1020076315087506,
            -0.9297882405159916,
            -0.3623191494579117,
            -0.05690957974872962,
            0.500392472097374,
            3.6388680157390776,
            -0.3691967106035841,
            -5.176400980048099,
            0.012702256281254877
        ],
        [
            2.9723054303257137,
            1.4604657887690644,
            0.2895918660651248,
            2.9482159526461125,
            -1.3834692788853395,
            -5.616535881977956,
            8.050137990706807,
            14.067432909211263,
            -20.816658371399253,
            -3.9600247017956054,
            3.4247166774661544,
            1.875787076857386,
            1.1622335940051784,
            2.5873016583186588,
            0.054914739775061894,
            0.5139724130802226,
            0.024250082523710467,
            2.301346603548053,
            -1.137835292349343,
            -6.021420852513867,
            0.3898631309518941
        ],
        [
            0.22888484505877946,
            0.40006581325009755,
            -0.307416102709646,
            -0.18977418304021215,
            0.07265584333222966,
            0.0018923914708042285,
            -0.15721611969682162,
            -0.6887784040493161,
            0.22753388310141712,
            -0.578095212814305,
            -0.3158873393594764,
            -0.21484476470122893,
            -0.1260369687648836,
            0.15478957146101688,
            -0.23831980483838422,
            0.44461317850191684,
            0.24091145332093095,
            0.0020877460207688915,
            0.08612641435212755,
            -0.17843712906030215,
            0.5466004164001693
        ]
    ],
    "b1": [
        [
            3.482667717853033
        ],
        [
            -6.394339873028255
        ],
        [
            -9.19329891019477
        ],
        [
            0.0
        ],
        [
            -5.298809051745857
        ],
        [
            -0.6518455425753977
        ],
        [
            -3.0662044353858855
        ],
        [
            10.424633355696862
        ],
        [
            6.691248705009058
        ],
        [
            -6.0099554786487595
        ],
        [
            1.2735466404772056
        ],
        [
            2.9233593351341476
        ],
        [
            -4.447748101079798
        ],
        [
            0.25620523751354174
        ],
        [
            -3.257076726582439
        ],
        [
            0.0
        ],
        [
            -0.10689762425146083
        ],
        [
            3.3597203935452935
        ],
        [
            1.1983005524716355
        ],
        [
            -0.0016771128613727484
        ]
    ],
    "w2": [
        [
            -2.498107873277788,
            0.46459272940423646,
            -0.360391260606684,
            -0.12689048767790706,
            2.3057708021918266,
            1.037357743433802,
            -1.917571970872286,
            -0.7203203491373822,
            1.770539169472696,
            -1.0053096107035178,
            -12.459852315130988,
            0.35509114431352773,
            -3.3928534400768218,
            0.39950614168429716,
            0.7906430421800881,
            -0.08691326752685923,
            -1.898679880186093,
            -1.7816570135088265,
            -2.026392874933983,
            0.25167981434462144
        ],
        [
            -0.2155371528897479,
            -0.21124766518095575,
            0.17595292538375432,
            -0.0400463102384036,
            -0.34910395218390994,
            -0.0535948096349245,
            -0.18919512618493464,
            -1.056242489074743,
            0.8960818324144904,
            0.3769225408758612,
            -9.960277331411037,
            -0.03550123775664063,
            -0.1873377065645505,
            0.051882997463242854,
            0.8037439888504357,
            -0.047802027796314345,
            -0.2658727473357419,
            -0.04127021070632483,
            -0.41046193424236954,
            0.22681659342446192
        ],
        [
            1.0910074424354363,
            1.9949094306802693,
            0.7078542021738972,
            -0.05402918147054945,
            -0.7486909850973503,
            0.35133779434428414,
            -0.5785061027967672,
            -0.8239121694841774,
            0.25245114101375293,
            -3.2515232173619806,
            -2.129102608783864,
            -3.073581312933186,
            1.14545977072329,
            -0.7790003755808436,
            -0.24422745139470275,
            0.12818921644913087,
            -0.6251031106737814,
            1.914694570767078,
            3.5030193400239646,
            0.04008748901165501
        ],
        [
            0.20737049234936167,
            10.254553086797102,
            -20.705669264926435,
            -0.46429285978152507,
            5.072944212523163,
            7.5507431366908255,
            6.664926400184912,
            6.531361926740203,
            -3.784312009999165,
            -15.826447872079756,
            6.811423713256508,
            -2.951381258527839,
            -5.045192228135603,
            10.143377517259136,
            -8.438651778787712,
            0.20356651827864652,
            -9.467005600051817,
            -7.79017087454683,
            -13.487413880631756,
            -0.0013448804170131852
        ],
        [
            -1.1741313301688918,
            0.26784047259677946,
            0.22808521112702224,
            0.2963303009196711,
            0.9174602727089963,
            -0.12922065940009017,
            0.9543741419903488,
            0.8911438156575223,
            -1.236201805171243,
            -1.4584071369732043,
            2.328219184663082,
            0.8720380617778747,
            -12.24598521699017,
            0.5481462240632115,
            -1.243977187106331,
            -0.455114874487303,
            1.0015427115162896,
            -1.1833080333689474,
            -0.14837978367185942,
            -0.13310695920187945
        ],
        [
            13.51631247326521,
            0.6583619254642007,
            -0.5131619773758286,
            0.37281207870042016,
            -20.37091286920874,
            -2.0952486329256192,
            -12.279395874307768,
            -5.714394057711003,
            -4.739689938338931,
            -7.396894746980001,
            6.841480349898999,
            -7.940439427771042,
            10.522451931547357,
            -7.921704756480002,
            17.288426056500583,
            -0.4103945542513365,
            -1.6110861158362813,
            11.218781303651477,
            11.923095454487983,
            -0.020722898804431823
        ],
        [
            -7.534368197794544,
            -0.27686461460146555,
            0.020568521251461348,
            0.47388312704908175,
            -1.4761417310030465,
            0.9175879966197067,
            -4.882773323656662,
            -0.07092029057862087,
            0.08721607098927196,
            -1.9086062122801053,
            0.20500399249371754,
            -1.247314838941234,
            -1.7599993488486974,
            -1.5766004142293095,
            -0.631961354368144,
            0.03354293228028163,
            -2.3532677920858514,
            5.077463572208714,
            -4.0188856727239495,
            0.40726640404392345
        ],
        [
            0.2728477157825633,
            0.8285948318003984,
            -0.39217290461536725,
            -0.390965535767012,
            0.3537720876299107,
            0.5270186922190401,
            -0.154490034331731,
            -1.148457343579099,
            2.0245829288966855,
            0.7072547819066303,
            -0.6139727511065514,
            -0.905186726314244,
            0.8550809294289906,
            -0.17823572783650224,
            0.3452076615158524,
            0.3047549037456521,
            -0.6720962336597804,
            0.09380511406900033,
            0.23427121195748274,
            0.315954881524009
        ],
        [
            -8.012449918526315,
            -13.888285202130422,
            -0.47181382745431466,
            0.028846810571178393,
            0.9962063474325292,
            -4.042827431979893,
            -0.5559654552320696,
            -15.071045189312919,
            -9.902333934369693,
            0.3329055224226463,
            -1.173572521150222,
            13.20849739136094,
            -3.1670379206998813,
            2.5139220622386564,
            14.24640085555757,
            0.17292968867390607,
            5.126094598132238,
            5.324429618488087,
            -9.839584158442971,
            -0.26614813602634535
        ],
        [
            0.6992402959413413,
            -1.8275324052809958,
            0.2690183295154617,
            0.015660377758519074,
            -2.1320037095220585,
            -0.9266649177638283,
            -1.0979614868614236,
            1.8656104051931302,
            -4.334796184370509,
            0.19645329593444802,
            -6.524020624755401,
            1.9762937391295452,
            1.8960988250580184,
            -2.2956580090872523,
            1.1172054955115551,
            -0.40414695428180103,
            2.399513685988596,
            0.7094002710740364,
            0.382280552149095,
            -0.2464467320573444
        ],
        [
            -6.440382372581942,
            -0.4072380270596003,
            1.3931946747017765,
            -0.03938556907287925,
            -0.8297952392369821,
            -1.8513428518398163,
            -3.893759747764505,
            -2.5587273170952676,
            3.5681370173778073,
            6.146615386599066,
            -0.5439353917624409,
            1.4531278632612474,
            -6.166290641121744,
            4.715366507138836,
            2.4972898864886943,
            0.10871338632510104,
            3.093225089165787,
            -1.0286950241778159,
            -1.3138199640050305,
            -0.22988775277672324
        ],
        [
            0.34564686410084394,
            -6.833431576162777,
            -1.05034258182787,
            0.14892776831344198,
            1.0324237250717008,
            1.784317681146718,
            2.913947188885722,
            -3.934176406179256,
            5.305626455945353,
            1.628308073300649,
            -2.8427365570295295,
            -3.660310065301576,
            -2.262468737738506,
            1.4496673824121455,
            -2.2209324724414,
            0.108990136541997,
            -3.7362622792051106,
            -0.1573571912859651,
            -0.2435721040665492,
            0.2295878920600191
        ],
        [
            -0.3424910715048552,
            0.9296239924485195,
            -0.13977621101191648,
            0.028859308917597047,
            1.2860580231671517,
            1.086932026057208,
            0.7272827753918312,
            -0.18723251047668044,
            1.1532786524778689,
            0.2540970160533537,
            -2.4521661590540087,
            -1.0160219383168736,
            0.8787032122180102,
            0.7065855491514096,
            -0.5915166892430195,
            -0.36144444447214247,
            -1.5478533881087917,
            -0.31536776581712983,
            -0.6213503378084649,
            0.08911199298017834
        ],
        [
            1.9942898187455258,
            -3.275824258954602,
            -4.132216631654027,
            0.36984849514838275,
            -4.488048865804328,
            -2.8560239456666268,
            16.513454985954535,
            -8.27288538882153,
            -6.43728069506806,
            3.608387639816059,
            11.928488076352643,
            3.272290938749498,
            8.365192474666836,
            -12.155930274737557,
            -20.091696976101762,
            -0.14627028013771348,
            4.400516889473063,
            -6.95933987856418,
            3.6514364011653138,
            -0.129972577737616
        ],
        [
            0.2701860565084011,
            -7.420218744374295,
            -6.474662547740037,
            0.5391526427817122,
            -0.5582720559650775,
            -0.9397089276490618,
            0.5236391754791887,
            -2.1104747787754836,
            2.0552696757368443,
            0.26585910567547083,
            -4.196671563288575,
            -0.8735029338951886,
            1.6074523516442851,
            -0.035065724061991904,
            -0.25253636205930075,
            -0.2913077458070991,
            0.9351605894427389,
            0.8858430731741338,
            1.5413977141567243,
            -0.17128004702705957
        ]
    ],
    "b2": [
        [
            1.8168793533052379
        ],
        [
            0.20994906480759526
        ],
        [
            2.6614969571216336
        ],
        [
            -7.445219839005344
        ],
        [
            -0.5994005461045536
        ],
        [
            3.268623089442359
        ],
        [
            -1.4752193830320919
        ],
        [
            -5.296058191114726
        ],
        [
            0.7369458147550495
        ],
        [
            -4.16374941341197
        ],
        [
            4.098326277899166
        ],
        [
            -0.27902564607691066
        ],
        [
            -5.137707799851288
        ],
        [
            4.643238526837921
        ],
        [
            -0.4667790114444071
        ]
    ]
}