{
    "w1": [
        [
            -0.5318598126026861,
            -0.05651072008991484,
            -2.960944708838884,
            -0.4255411629938544,
            1.0127105550269258,
            7.24569297573887,
            1.9962833198599357,
            5.309263466966548,
            -2.2612436430020644,
            -8.7826603629182,
            -1.0299713082272925,
            -0.23032850296237234,
            -3.324289158070003,
            -0.3792254112768004,
            -0.12517088181830263,
            0.1042762184820251,
            0.4750744047992832,
            1.6719216807399118,
            -0.09337278859081044,
            4.607963342854345,
            0.8921607472732976
        ],
        [
            -5.317268620296066,
            3.5225444971803923,
            1.0007799735598677,
            0.1594525949381767,
            3.874164883083163,
            -12.621666261567686,
            -4.4076805004699,
            0.7556607992612495,
            13.945687279660842,
            6.782953741385535,
            -4.723984497092485,
            3.652042060080913,
            1.9594101144318101,
            -0.16384270016128596,
            -0.08244943434645202,
            -0.6210207095333388,
            -0.27111092613538634,
            0.2687036255063507,
            -2.1124384261530262,
            6.710687144401521,
            -0.5250702947387254
        ],
        [
            -0.42501338151381973,
            0.06197780941666884,
            -0.223639270878665,
            0.018497470824383425,
            -0.7987433021116864,
            0.04274615045516118,
            0.24534594307262525,
            -0.1870278578705465,
            -0.27584637833086234,
            0.21269680587656586,
            -0.06548713861552061,
            0.011003076654656338,
            0.40903128479897966,
            -0.03151956957023621,
            0.24057833665519637,
            0.09787154333087211,
            -0.26538633804768763,
            -0.5177688030168762,
            -0.04881184685066142,
            -0.5951879290872261,
            -0.21888044934693984
        ],
        [
            0.28437678736798705,
            -0.2945954694302124,
            -0.2223493346767004,
            -0.6090994429846239,
            -0.49584930839848085,
            0.28667841479068185,
            -0.16405970538640247,
            -0.2872350259982068,
            -0.17505388626995172,
            -0.34009876739445005,
            0.2966614362574187,
            0.0425064070616528,
            -0.3655357643484171,
            -0.27636828393593643,
            -0.34975475656276156,
            -0.08574208179950794,
            -0.1987902370515936,
            -0.5067495018558903,
            0.2693586021591334,
            -0.2485495024444694,
            0.01656673641601662
        ],
        [
            0.04292459711677773,
            -0.7170558019154402,
            -0.02227727472755915,
            -0.46716420203457854,
            0.2151144844830339,
            0.01324086366355309,
            -0.5086325216430583,
            -0.20077415953472746,
            -0.8362422905296877,
            -0.21068126358203215,
            -0.5306759193134193,
            -0.17233480869913465,
            0.14391784748661188,
            0.3371988072660284,
            -0.0005800893727975968,
            -0.028487575316707637,
            -0.09677179126836542,
            -0.369665343265497,
            -0.006595418947846134,
            -0.5068518171977128,
            -0.20665545044714695
        ],
        [
            2.45830581185366,
            -2.458499943094634,
            -3.6992198431566368,
            1.5502488355531687,
            2.464350808552173,
            -15.490437269929753,
            -1.3227900033536588,
            -3.88635233393517,
            7.672292217125055,
            3.8707539980154246,
            2.4682910279411785,
            -2.3842518754018367,
            -3.3730295775466206,
            1.2745577276059632,
            0.07042159036366417,
            -0.27517783973656507,
            -0.029256815061786064,
            -3.663682488204118,
            4.404135757356773,
            -3.205822013455748,
            -0.13595122760324782
        ],
        [
            -5.67105029420206,
            5.6895488434488914,
            -9.942008545787873,
            4.584916914117119,
            2.295572219079679,
            -7.406585584440256,
            1.4691484676547582,
            0.26532366006921565,
            5.606078313932118,
            -6.901072073980598,
            -5.485859674387609,
            4.396954926280739,
            -10.347706076382279,
            4.740327748097895,
            0.04976541924075887,
            0.2635616264749044,
            -0.1983746220536938,
            7.826771336972415,
            -7.924330277116114,
            -1.9269977075275526,
            0.1766916004060384
        ],
        [
            0.027941564176766995,
            -0.7031423160469408,
            0.12100230147503722,
            1.7497702977449572,
            -0.28016142386428305,
            0.49467758969335424,
            -0.20301252913188503,
            5.993373183655426,
            13.161940908380211,
            3.1927737929044464,
            0.06594301218843235,
            -1.0790090225486566,
            0.08479152834045581,
            1.3478662173298859,
            -0.36589358269280986,
            0.5179069566958708,
            -0.30798850445707177,
            -0.7952031130461552,
            -3.4447132292095093,
            3.975204388463262,
            -0.6575205844557777
        ],
        [
            -0.3368311814019782,
            0.05513099479791285,
            1.090947670002175,
            -3.4767530137030636,
            -2.4227019849356832,
            9.87377066011365,
            4.228268361942342,
            2.425311287209812,
            2.770287822374011,
            4.20977121731063,
            -0.4165575897849782,
            0.1925553351661616,
            1.0887851314324768,
            -3.5161130292606164,
            -0.3610557529333192,
            -0.2279267427798851,
            0.24926779162227186,
            -0.806533977448226,
            2.3890617096079683,
            2.9551695022311235,
            0.7297149545339691
        ],
        [
            -4.508661012766373,
            4.4728771893540635,
            -0.9803436054989382,
            -0.00270384036608097,
            1.2361369521392391,
            0.18170500247223256,
            5.48875361805846,
            6.966281717999596,
            2.703449423076783,
            -8.9488303937609,
            -4.638732235796415,
            4.419171086731361,
            -0.9571773330087017,
            0.6999586365863113,
            -0.18541161423681932,
            0.03567310642616152,
            -0.4664380519365177,
            1.493977812494107,
            -1.3630096540207293,
            5.475387285189968,
            1.190344895558995
        ],
        [
            2.0974189805523094,
            -1.8310949076597371,
            1.4451039192823192,
            -0.39896499700152477,
            1.9794748221469978,
            9.510275731626832,
            8.322467032262352,
            -8.245599535189559,
            -1.6615748533729982,
            6.119418572668154,
            2.122836019673802,
            -1.603890343260337,
            1.9220172270847908,
            -0.5491927606810181,
            -0.16657335057301856,
            -0.24245993999391555,
            0.25614444126791364,
            -4.458474330502205,
            4.405061765260767,
            1.221582511268607,
            -0.5243995992415252
        ],
        [
            -0.6335504743440757,
            0.08725160423692666,
            0.013730846123980695,
            0.07817784477482247,
            -0.21989588273190605,
            -0.2978064205778029,
            -0.005933515961505215,
            -0.3598261602353133,
            0.03120066239296305,
            -0.323220602380368,
            -0.012134276916003203,
            0.06320999536687355,
            -0.6070495619681681,
            -0.12894927146729634,
            0.15020804682893946,
            0.33636642175952364,
            -0.3491540084441132,
            0.7904374848804314,
            0.3008679391723904,
            -0.5649499537124895,
            0.40424836864106667
        ],
        [
            -0.01089342717629952,
            -0.37145486572859443,
            -0.17548139080596337,
            0.3487854330172806,
            -4.319958670029397,
            1.4213808784586643,
            4.213923986368694,
            6.940570235998287,
            -8.175357703295784,
            12.455031932427044,
            0.08778825440746175,
            -0.6279581870405251,
            -0.9274726664671731,
            0.34430489771891853,
            0.43804619698233205,
            -0.34186891177860784,
            0.646030584650421,
            7.42554735904864,
            1.9483163206880996,
            -10.137275045523104,
            0.1656727458125014
        ],
        [
            0.048311573675521774,
            -1.4597038836812395,
            0.8587779578116959,
            -3.8744377001834627,
            1.586510084660734,
            -5.8527248415840125,
            -2.5541597154818367,
            -5.608621255345801,
            15.829599575309492,
            15.256147940011806,
            0.20890325970965737,
            -1.65209786152651,
            1.046398888575183,
            -4.019119806361029,
            -0.1427142786380173,
            -0.03180772178641954,
            -0.07113772944648827,
            -1.395603772457896,
            1.4912603863584033,
            4.25118053053447,
            0.7957635972427762
        ],
        [
            4.009811245122722,
            -2.663532932679664,
            2.2553880610296266,
            -2.1009875531219997,
            -2.309214244222407,
            13.009663532443037,
            8.598729588700866,
            -5.032424764254087,
            -9.109769608160029,
            3.753828419592339,
            4.190029862563349,
            -2.2726879738264865,
            2.1437328581894124,
            -1.7332894496780715,
            0.2902122290651421,
            0.45649933937928866,
            0.2419069921633523,
            -2.433035684457496,
            4.980705274667334,
            -4.498719019404576,
            0.6612547036963258
        ],
        [
            -2.5676330806865755,
            1.7720446331269921,
            3.372200986685817,
            1.7072790335375683,
            2.3977013211753384,
            -18.12917270776099,
            -9.620431638299419,
            -2.380500930398354,
            10.90527762219594,
            8.861817655292192,
            -1.9375872645702406,
            1.8102573239149065,
            3.8589078477982732,
            2.078257706513162,
            -0.08951596382131552,
            0.49131425165480264,
            -0.47910763478220286,
            0.8939056395340105,
            -2.276711820179615,
            -0.874693371444597,
            0.35158139950375944
        ],
        [
            -1.2662375057792203,
            1.9807652018490722,
            -0.5178261406858984,
            0.9058930776939992,
            -3.8596404468376293,
            0.3213432282449119,
            -3.8416512149809448,
            3.0173580354653997,
            -15.150248335375219,
            -16.58987736293707,
            -1.6227332332877196,
            1.6313950227648937,
            0.32615896696079527,
            0.3086063242737956,
            0.5178284383934009,
            0.09857518150089888,
            -0.2927447066739209,
            8.03881327716874,
            1.9284473185600328,
            -7.641826765867333,
            -1.2680503054401315
        ],
        [
            -6.966132392286834,
            -3.485881507587288,
            1.8098093457045634,
            -0.15917378099586682,
            1.5627017713829445,
            -0.5761140747196739,
            -5.446606914992502,
            -11.250122478035571,
            -2.148693426507415,
            -0.0722928686840489,
            -7.707393982641116,
            -3.3483966797708025,
            1.6514894184906563,
            -0.5763874136174927,
            -0.411570779024327,
            0.6962129180413155,
            -0.26873928033060823,
            3.4158348377300944,
            -2.6053389066104704,
            1.7536342309262576,
            0.34372088055667366
        ],
        [
            -0.40154656773761255,
            -0.36552693583478724,
            0.9401826048345857,
            -6.368113295412154,
            -2.7932471763385176,
            3.7149428887344045,
            -10.535475617233171,
            -14.271580021162434,
            7.22925171449644,
            -16.532084823811534,
            -0.3374487351641801,
            -0.766432641635527,
            -0.6737678516359222,
            -6.896049744912746,
            -0.3269856989971397,
            -0.22908346744939442,
            -0.25348069196505674,
            2.1451725771216785,
            4.4248940542748665,
            3.8121100707522277,
            -1.3612389821460527
        ],
        [
            -0.07151131100329135,
            0.06251728410938591,
            -0.40712298365383415,
            -0.08966627299067224,
            -0.5084573405964662,
            -0.6721036127375282,
            0.38465242293771656,
            -0.007434984258405324,
            -0.33612454180009854,
            0.2935270463765319,
            0.727412763630106,
            -0.5082931149186549,
            -0.25437236277827213,
            -0.6319970500621687,
            0.5364766368889997,
            -0.41672448492065933,
            -0.15524029034562198,
            0.6019868523141687,
            -0.1910541883148682,
            -0.3985931202574578,
            -0.20373048458631696
        ]
    ],
    "b1": [
        [
            1.4906919592393406
        ],
        [
            -1.1065411211368312
        ],
        [
            0.0
        ],
        [
            0.0
        ],
        [
            0.0
        ],
        [
            0.6034823510275691
        ],
        [
            0.19484412227089365
        ],
        [
            -3.7515761780587495
        ],
        [
            1.783811594918132
        ],
        [
            0.0537378198577187
        ],
        [
            -0.31181915034143703
        ],
        [
            -0.009456778856647427
        ],
        [
            8.799853894108375
        ],
        [
            -0.5505436759193229
        ],
        [
            2.605443810687167
        ],
        [
            -1.3984293535043772
        ],
        [
            9.33275823151336
        ],
        [
            0.7757947027541175
        ],
        [
            6.380872736026721
        ],
        [
            -0.045165062863417045
        ]
    ],
    "w2": [
        [
            1.0658615488348762,
            5.167178414053856,
            -0.10283404627656455,
            0.10359190200174093,
            0.12318977481833092,
            -1.50672761322669,
            0.5228934905489387,
            -6.053809751021999,
            2.1995913435813588,
            -6.148619860843516,
            -0.8498404886246635,
            -0.429567402093383,
            -0.2855491454709425,
            -4.875715829890798,
            -0.8999057010647561,
            -1.6488434112149137,
            -1.3899468410344684,
            -2.868679799768248,
            0.610484217418399,
            -0.43733198921764893
        ],
        [
            1.0788513647848572,
            0.03723655751736226,
            0.4518421868632621,
            -0.8235053263099164,
            0.32974936615808115,
            -0.7595989687079495,
            0.07705007030635239,
            0.21479453960616013,
            0.6320835818870403,
            -0.2718374638935841,
            0.013636887181561766,
            0.21083609152466443,
            0.06532481868458176,
            -0.7620434331258845,
            0.17299364278010662,
            0.9093755690568109,
            -0.6758420939346879,
            -0.4588394749113896,
            0.06812942209891218,
            -0.23567537771804015
        ],
        [
            -2.055437505722119,
            1.4456270390639245,
            0.05570470147529834,
            -0.4144182101741491,
            -0.2032661283948414,
            1.148441677635229,
            -2.2545583124699182,
            -0.5852258527805451,
            -3.327100535446253,
            1.025190739319963,
            -0.15081427729041533,
            0.08569044219906219,
            1.4091224863371703,
            0.6735631278138612,
            1.265424410125872,
            -1.7134639524003206,
            -0.36302446531844473,
            0.9082313640704707,
            1.018836769305053,
            -0.253204657662021
        ],
        [
            -1.2532128148700747,
            0.9123252116486196,
            0.13983733813529212,
            0.5020362381781077,
            0.13666608851417097,
            -0.1211520312414532,
            1.4155528481314659,
            -1.4339746630545698,
            -1.4505763773923999,
            -1.6991347766383746,
            2.1208152469539474,
            -0.24986001132210267,
            1.2091849304169395,
            -1.1716319904250652,
            -2.6417585949216456,
            -0.7956334462515867,
            0.08755227258296201,
            -7.404124301808313,
            1.9878395764034846,
            -0.2801668425873642
        ],
        [
            0.9540933851444979,
            0.46567190827253224,
            0.25067488796228704,
            -0.17973917225883937,
            -0.26691059225967956,
            0.40684025957157877,
            -0.3118962840731274,
            -8.599245205101415,
            1.4820473961420162,
            -1.8977909657984793,
            -1.0950200078176613,
            -0.2238226386184613,
            -2.4574765232416236,
            1.0005091427115744,
            0.08023130886877713,
            -0.04351427893149154,
            2.554602936072611,
            0.2524018943030883,
            -1.4966144977534848,
            -0.15830951501737542
        ],
        [
            -6.574362270220696,
            6.332852908911373,
            0.1394110107383504,
            0.061651339865405094,
            -0.2660033980348282,
            -15.496074511762696,
            -9.102562460112816,
            1.8401485571100584,
            -6.920892076625407,
            -2.1039253586165345,
            0.9235627563854159,
            0.23967816829897165,
            0.39730688133277064,
            0.9337677897097262,
            0.13329959779202552,
            -7.909718311607336,
            1.9079680480919121,
            0.3184382216251957,
            1.4152214044871247,
            -0.26787781021870916
        ],
        [
            -1.361782180703346,
            2.3114679705020023,
            0.5858329834211633,
            -0.3446019082228747,
            -0.04370042078599223,
            -2.5441998298688437,
            0.26698923360638693,
            -1.9308019910343055,
            -0.8066805431496985,
            -5.2140879439873205,
            -1.73142976091875,
            0.3922772660753958,
            4.369028221213844,
            7.257509439321404,
            -1.4987815831281428,
            -2.067938467918883,
            -3.7620545114641417,
            -1.0706597971560408,
            -3.7055450731146737,
            0.26048486193003595
        ],
        [
            -1.4628901818707383,
            2.4655004448394644,
            -0.18646609155315733,
            -0.255018120327812,
            0.000374547090204892,
            0.22325249992517926,
            0.08745513127872544,
            3.235856086657192,
            0.9352622855878066,
            -1.495336690362777,
            0.3371539109228976,
            0.06711346635162851,
            -0.8003587587544968,
            0.9906686021881775,
            -0.528501766408648,
            -3.3070929091345884,
            1.9816667830150592,
            -10.36879579981286,
            -1.4938218750162247,
            -0.21975614770333934
        ],
        [
            1.6647252701298363,
            -1.6056360501393245,
            0.558293028109726,
            -0.21418349964726732,
            -0.27664893786642647,
            -5.68720564562145,
            6.934304170439272,
            5.485560020820816,
            7.241967423570306,
            -3.945454053459708,
            2.8541056420185305,
            0.056627166174515596,
            0.8327438805607447,
            -14.237209851664003,
            -5.6718765855507165,
            4.884327062007135,
            -7.412577284930214,
            1.8252360764762061,
            5.490490499386691,
            -0.5139415408016159
        ],
        [
            -1.1757193951015952,
            -0.7922587565896436,
            0.5911800914679598,
            -0.28399538119402495,
            0.03916022917465859,
            0.6925997877876667,
            0.21662996139219623,
            -0.8416807119207619,
            -0.639335255146841,
            0.8731763274352118,
            -1.0540272827473844,
            0.2231183397837116,
            0.018759035990671056,
            -0.1457664346163979,
            0.15507155977974654,
            0.21516693305355475,
            -1.2588397229523027,
            0.7778837279253085,
            0.5281511739041966,
            -0.2712401410860832
        ],
        [
            6.077266524837355,
            2.384756298690637,
            -0.3304850888215977,
            0.607525596219274,
            0.27283748594804563,
            -3.0392745520858617,
            -21.841841570057518,
            -2.2270661126656757,
            3.997335997078609,
            -0.21442463209560214,
            -7.517809542331435,
            0.13882445793060866,
            -3.163180162004352,
            3.424764928078689,
            8.599477013488253,
            -3.6155754104916817,
            -1.0434106668091556,
            4.362193929564552,
            -8.611383786023033,
            0.4368289034105452
        ],
        [
            -0.553108370611759,
            -2.366216996537836,
            -0.40121528238120624,
            0.4998567732579872,
            -0.2976639710841766,
            -11.642116671601787,
            1.7113520109822977,
            -0.8797776119050472,
            4.350681888178817,
            0.4074588941673989,
            1.314114192515021,
            -0.26780632555931755,
            -2.022041350527007,
            1.666790756677805,
            -3.008515111468422,
            -0.34353307044056486,
            1.0158663984285066,
            0.006956192140586849,
            -2.419255737667216,
            0.19842692435695897
        ],
        [
            0.6076711444696268,
            0.44985561684737835,
            0.28264183071036897,
            0.09240799574922516,
            0.20098974428599956,
            -0.5738285268184873,
            -0.42223443562096846,
            2.0213273428498204,
            0.9973398964815046,
            -0.6968059818857738,
            -0.3864604220956311,
            -0.05941909536248726,
            -0.9032492237713037,
            0.6153904858341628,
            0.12097961454449666,
            -0.5711664013360231,
            0.9177838445984847,
            -9.265731544517026,
            -1.0471921528236519,
            0.47669686548816537
        ],
        [
            0.11513908700119702,
            1.7380512944702329,
            -0.23694509253815357,
            -0.6186743415881899,
            -0.3062817325456972,
            0.4380472619070892,
            1.329916187774165,
            -0.9832266901335425,
            4.079228838631269,
            -0.7599872433530839,
            -0.4908450755984105,
            0.31604659929695533,
            4.05313577122239,
            -4.601782862428473,
            -0.7833240177753404,
            -0.4720575872456615,
            -7.187530681172713,
            -6.121478383663176,
            0.34120119780937674,
            -0.011338545555890495
        ],
        [
            -3.17476865400342,
            -5.187631977093444,
            0.2780806571839105,
            0.2175456288769212,
            -0.28817965877332435,
            -0.6148024038179837,
            -1.8574197500121234,
            -4.028967292640241,
            2.538985766747807,
            3.2533164349295487,
            2.8896290025626277,
            0.25422201855902377,
            0.8579302214234309,
            1.697936645476335,
            -4.645456942973687,
            1.1345117530655993,
            -0.5624036252278316,
            1.568795831767561,
            -0.4506355232588013,
            0.2006584918544562
        ]
    ],
    "b2": [
        [
            8.964696078490304
        ],
        [
            -5.629017794516456
        ],
        [
            -5.965649217582361
        ],
        [
            -2.650364133437233
        ],
        [
            3.1030855477451436
        ],
        [
            7.370153590832366
        ],
        [
            -0.0007318340126823038
        ],
        [
            -5.18258054365108
        ],
        [
            -1.961246169500284
        ],
        [
            10.212462562508748
        ],
        [
            6.547663914860008
        ],
        [
            0.5769018461482387
        ],
        [
            -3.2515504729867377
        ],
        [
            -1.8929452036229173
        ],
        [
            0.3140798338777784
        ]
    ]
}