{
    "w1": [
        [
            -1.6019256530563344,
            2.58453235107038,
            2.008197004531501,
            -3.9723956509847667,
            -2.009934936338682,
            1.696402247762109,
            -13.642398954112673,
            -5.492605680107614,
            -2.338210795906006,
            7.551405541686862,
            -2.202626039889689,
            2.3978079541703465,
            1.7964797009699023,
            -4.096409979399743,
            0.22401957648131515,
            -0.3773702481320182,
            0.18682235888036228,
            8.322674117660567,
            -1.0178230211192307,
            -1.6064243890538654,
            -0.13923314635784978
        ],
        [
            -5.1089144598378695,
            -2.1909816951190413,
            2.3903392358167594,
            2.799630645436298,
            -2.301298007434895,
            4.795232061644961,
            -0.32533980361886783,
            -2.2507039204966657,
            -10.877313259873292,
            -16.181634630925444,
            -4.679548899365915,
            -1.2326785902868802,
            3.0486743033011505,
            2.314464117119044,
            -0.0031076228330387447,
            -0.5616933512763499,
            0.0008581651350028025,
            2.8507368432276987,
            5.15581411300335,
            -10.084150360639681,
            -0.20091290926021882
        ],
        [
            3.7035740916632647,
            0.992108961340121,
            5.252382343968532,
            3.3825470122669836,
            -9.627741881977833,
            -9.969924990821422,
            9.252146575861389,
            -5.7073438635023965,
            -0.823363653419827,
            2.2234065293779715,
            3.0442841047017852,
            0.8920475721594983,
            6.388940448696288,
            3.078865865933798,
            -0.38519290581220555,
            0.1795253862090267,
            0.021143902917593993,
            2.951840421710826,
            -0.03399209226932246,
            -9.050203822528196,
            0.13571123118363682
        ],
        [
            4.57200833575638,
            -3.0137037984153436,
            1.638552014707066,
            -1.8742384386924313,
            2.6209941315898915,
            -12.969672041561903,
            -2.999273440110052,
            3.401710251466714,
            13.528583565354491,
            -20.84186864059001,
            4.327108444406517,
            -3.149044588518553,
            0.7761135857767951,
            -1.6275605550982282,
            -0.30977643623550744,
            0.1952112822322903,
            -0.15141589582415518,
            2.791369061370586,
            -1.1936053816792724,
            -0.9227851930392396,
            0.17315220821558477
        ],
        [
            -4.302209892152079,
            4.021191678131339,
            1.201661082123998,
            -2.5625143603342706,
            -2.2364308920954663,
            -0.14100434361452613,
            -15.639091136874507,
            -7.6828897527984,
            1.438378949465117,
            6.541925426731577,
            -3.839019527445107,
            3.8994970093349535,
            1.715350378139284,
            -2.6035413163579335,
            0.0050393908835154886,
            0.45420593552941607,
            -0.38107012888616254,
            12.248680840914473,
            -4.160377619339357,
            -8.139037399479983,
            -0.04406272781171279
        ],
        [
            0.4302519089582501,
            -5.178349826644949,
            2.1345342656439192,
            -0.018449173239192925,
            1.9636483844505939,
            -7.580604509740073,
            13.610322898107412,
            -17.77516165056158,
            4.708556348461693,
            -5.001942049310467,
            0.5124815905115557,
            -4.646421103362014,
            2.2936120420409103,
            0.08713496091705106,
            0.2947316299338344,
            0.17648886444252565,
            -0.024770769772716875,
            1.0063006925163551,
            1.334882379735206,
            -3.4502992940883708,
            0.0771891057522545
        ],
        [
            4.8820410207103455,
            3.831224551850103,
            -0.6888234671841618,
            -1.7109589057201937,
            -1.4039099009534868,
            -9.87102966084952,
            4.872762128553071,
            -2.446988838682942,
            -15.95682492339631,
            17.154204636142882,
            4.893342937616264,
            3.5538695124627235,
            -1.0592826358469605,
            -2.019036489845168,
            0.023862534513976,
            -0.00013445955539639358,
            -0.165821446966722,
            -2.840269723195772,
            -0.845803902404832,
            2.989870535661823,
            0.36967148463759186
        ],
        [
            10.569173662486769,
            0.19336872377452746,
            1.8969291513982298,
            -4.26827543858152,
            -6.023238839073188,
            -1.9728291845165549,
            -8.209230435965337,
            5.749405990978769,
            -2.6770217246714894,
            6.614613728020655,
            10.757987703792239,
            0.7883273808734448,
            0.771873506782027,
            -4.3456443533026174,
            0.18759974141272476,
            0.14619449909811566,
            0.42083073802458115,
            -1.7745327777279696,
            -0.7295393242212969,
            11.942097397356786,
            -0.12748163118566636
        ],
        [
            -4.796841989667675,
            -1.2351042861381716,
            -2.274762638826667,
            -0.45276012505888613,
            6.77337213571634,
            17.394831232742927,
            12.901768555278526,
            8.158481968036472,
            5.224884365744486,
            -14.726012947830704,
            -4.794614796107457,
            -1.0925264427714543,
            -2.0443812117674414,
            -0.9457258887700479,
            0.06886398783489449,
            -0.5064519039730633,
            0.2851153182809722,
            0.46624575801105184,
            1.6101172676350715,
            8.475704330957765,
            0.47015767905701683
        ],
        [
            -0.043637124564473204,
            0.20863242107576108,
            -0.17254675098688924,
            -0.26756855462752877,
            0.23290943155554272,
            0.3475044525844756,
            -0.4568352250589921,
            -0.2263378006129631,
            -0.12971501839834576,
            -0.07791384393769371,
            -0.09021988433787881,
            -0.23123880877588557,
            -0.39385655797953517,
            -0.23482122756768473,
            -0.35473629008646507,
            0.06047818227114799,
            -0.1819342012964081,
            -0.553263786690052,
            0.10585124956646826,
            0.03378457300378682,
            0.29386909072354855
        ],
        [
            -3.790797117575833,
            6.501104471768598,
            -6.497416950052508,
            -7.078416435224569,
            -1.3954155861782371,
            7.544907334036706,
            1.2915170428723695,
            9.848132329789099,
            -4.598296665256822,
            0.08178488419086372,
            -4.122820073118268,
            5.51971945163092,
            -6.397887868473634,
            -7.4160474482418,
            -0.2152312394742823,
            0.029945347386429812,
            -0.2981893235599502,
            6.633385823642513,
            -1.3222282281339925,
            -6.495052084911206,
            -0.3104424985882527
        ],
        [
            -6.246978210334439,
            -1.500787240244675,
            -5.4280169028899525,
            -1.436677127527767,
            8.300553826848185,
            0.4125039756540124,
            5.5431894328876155,
            -0.27002779084163875,
            13.950632792400041,
            -12.64036480508993,
            -6.031946594570283,
            -1.9902999944361806,
            -5.8297472163994755,
            -1.3557330865050572,
            0.006276458963665834,
            -0.28631544564931244,
            0.056695553533209,
            1.0105796257433037,
            1.75391617144629,
            6.171374512707719,
            0.006167276738040257
        ],
        [
            -8.614956605147215,
            2.6928107091501152,
            4.723791194551362,
            0.87085046183278,
            -4.384556448103045,
            -3.864075771501361,
            0.8009748815937764,
            -15.6836826114511,
            14.316551486394719,
            13.570335278991065,
            -8.997488541010563,
            3.1104572552896146,
            4.603973142537367,
            -0.3963427650977345,
            -0.07272872987190644,
            -0.06895750109062351,
            -0.2107697793045577,
            5.558966749775631,
            -5.366108920185782,
            3.583028738250203,
            -0.14409619905056528
        ],
        [
            1.055690028165397,
            1.978656328233753,
            -3.8699930948269867,
            0.8792817707052116,
            1.9315480010586021,
            1.1161040943944505,
            -0.06700393853278692,
            -1.7121397078826919,
            -9.197758131632906,
            9.633656334753038,
            1.053704810940586,
            1.5399334901906772,
            -3.797629410046697,
            0.4759130801280512,
            0.08365828217010526,
            -0.04219079176457257,
            -0.0010804785234450056,
            0.1716777330120364,
            2.6363757831979076,
            0.06874110142679868,
            -0.1401399829209638
        ],
        [
            -0.2610523320938888,
            -0.1688218128123473,
            -0.24186588560393182,
            -0.2304373594750328,
            0.15382287119524254,
            -0.19479351814574022,
            0.18643067902199414,
            0.42891806279755135,
            0.12497277175166248,
            -0.269946183579147,
            0.4046013899289669,
            0.1983324087058026,
            0.18817326777262158,
            -0.2539203111231973,
            -0.16190473100556774,
            -0.20822422604165525,
            -0.18850022770785763,
            0.31475460692162616,
            0.015713070426217456,
            -0.4780678003128959,
            -0.11404544000848982
        ],
        [
            4.755978517121709,
            -1.3944241162834232,
            -1.6641756184823489,
            -1.1461589580962759,
            0.5874129209232077,
            -24.019298531778343,
            -3.707854294033538,
            -13.013006393865135,
            1.2886525405909284,
            -4.468335180117309,
            5.432580174818175,
            -1.5899982056731519,
            -1.7230119361362795,
            -1.3585793612640247,
            -0.009573339259033722,
            0.3532260373803539,
            -0.27478652950337695,
            -4.536812437633495,
            1.1116837203704213,
            3.9979157839731694,
            -0.38629861007319877
        ],
        [
            -4.723665647669453,
            5.682556156015086,
            0.5632089555204165,
            5.9469075782197836,
            8.032353918397625,
            8.880865402419163,
            3.9272698937868054,
            -0.7003063771881074,
            -3.8820244762527802,
            12.848119199454658,
            -4.955769892505349,
            5.08935733693334,
            0.4168191789340246,
            5.785748442797613,
            -0.14020967883244106,
            0.22118468604055916,
            -0.581830895681411,
            0.5292335202340402,
            -0.9090733066640718,
            -4.31752279736917,
            0.8536484636341191
        ],
        [
            -5.069531680772881,
            -0.12225612087442676,
            3.3101273803465503,
            2.4047356792006203,
            -3.727148165939235,
            -12.994629965378577,
            -12.266222228750415,
            -6.787042130173245,
            -12.533985927662746,
            5.722474732956091,
            -4.623961483526041,
            0.5679865028313626,
            4.162295795320037,
            1.984265710723401,
            -0.24606530548631306,
            -0.16337524060199698,
            -0.12877872474889965,
            1.6107304103713167,
            -1.1035983244975005,
            6.521457060493695,
            0.09812686442670705
        ],
        [
            -3.0278749612010825,
            2.022332437204446,
            2.004718025653232,
            4.065639244641003,
            5.484833892700936,
            -5.056890076390333,
            5.155060951168594,
            -3.554087370532844,
            -3.963330006755017,
            -4.114334408339038,
            -2.8716380562512125,
            2.234652924872691,
            2.156586927058097,
            4.654219802676916,
            0.09069649253941461,
            0.15338928892235185,
            -0.25379792519026556,
            -1.371585059321506,
            1.1156124740831208,
            -3.061169620842766,
            -1.0051072761622029
        ],
        [
            -5.0463462125573155,
            1.1165837348917989,
            3.968888690182331,
            -3.5587873019221425,
            -1.3577375696914762,
            11.669009426654933,
            0.788565623167213,
            -2.9230435558838668,
            1.731965255016572,
            -11.89591603975405,
            -4.067945737280528,
            0.20120047651054665,
            4.617730186663313,
            -3.2424089259401616,
            0.6187224624270943,
            -0.17091678525569992,
            0.23582699621064004,
            8.051073996983556,
            -2.3232472948472487,
            -1.6763709759859209,
            -0.5053265030169548
        ]
    ],
    "b1": [
        [
            6.844424005207161
        ],
        [
            8.541417661307035
        ],
        [
            2.6201070686802757
        ],
        [
            1.9535512683492409
        ],
        [
            8.42110497903747
        ],
        [
            1.8931326250199916
        ],
        [
            -4.067079684109946
        ],
        [
            -2.7427456621445176
        ],
        [
            2.1246866530942436
        ],
        [
            0.0
        ],
        [
            4.727374106016995
        ],
        [
            2.773716431916955
        ],
        [
            0.31793059050913075
        ],
        [
            1.7683767803002137
        ],
        [
            -0.021108300793873193
        ],
        [
            -2.672372815155314
        ],
        [
            0.0514273222014053
        ],
        [
            -0.5225710529080715
        ],
        [
            0.21712988111271825
        ],
        [
            6.001414851641538
        ]
    ],
    "w2": [
        [
            1.2666089466170243,
            4.4486754915891815,
            -3.8186778639138756,
            -13.3808362057021,
            -9.350700869451778,
            6.730417257054885,
            -10.66693817987415,
            8.562165704777849,
            -6.505065580225977,
            0.29055429829633345,
            -11.989268055995112,
            6.323202245648968,
            14.057077957703676,
            -4.623752669104925,
            -0.18114798161591628,
            -2.979090386550046,
            -1.9163342246724253,
            -15.431635020849601,
            6.4692414487490915,
            -1.2427181418860038
        ],
        [
            2.276834897922959,
            -4.679131921328525,
            3.85918162629563,
            4.314799425773256,
            2.095430287978589,
            -5.435055734818034,
            5.2117462317789105,
            -5.785805078097492,
            4.915283202960883,
            -0.4614987548845999,
            -8.207983854355025,
            -4.208763350828245,
            0.735634158735938,
            5.0402563751805225,
            -0.11765720591488689,
            -2.311217199094566,
            -10.729072889057415,
            0.4803135064751597,
            9.038228377816893,
            -2.212842232527611
        ],
        [
            -2.208859640209403,
            -0.9853503015847975,
            0.16329691133024693,
            0.17769523996840622,
            0.45621061740230845,
            -1.3864105677725935,
            1.5655714727030487,
            0.24714908623031942,
            1.7482487162247629,
            0.022056448393415983,
            0.8849905586769168,
            -0.5597286049302064,
            1.388430691533466,
            -2.1793638220689378,
            -0.38062177495253735,
            -1.8559394769953934,
            1.2791705320013034,
            0.1093703026970452,
            -2.6933559370547626,
            -1.0014795085900923
        ],
        [
            -0.849806738633735,
            1.2311907029142906,
            -0.9584246176296197,
            -0.027861216677493753,
            0.16044372518061628,
            0.6709757382353457,
            -1.3133157259334058,
            1.2717132947408827,
            -1.8294372733700623,
            -0.25850363626088313,
            -0.11599531699889273,
            1.7315017890989066,
            0.5561054828330189,
            1.1932962744880602,
            0.2222992794140192,
            -1.5142701105416851,
            0.3153382471281859,
            0.11392370416360022,
            0.16094814607883626,
            1.0522564032646033
        ],
        [
            1.7139557609032645,
            -16.200453921702543,
            11.93430983109938,
            -14.987443669161223,
            2.7331242839426055,
            16.294657132139395,
            5.032644035229281,
            -8.170128842258173,
            8.323224015253535,
            -0.07161279742843478,
            -13.067917521160425,
            -6.9039851415829645,
            -7.213874991348236,
            -2.764746091969842,
            0.20127220361564513,
            15.11361541943517,
            -2.3668036832938117,
            -3.074682720376932,
            3.5283466272792077,
            5.560117867531483
        ],
        [
            7.520340152812244,
            -1.6904613117450629,
            1.1505445685221023,
            9.949836347071312,
            -16.615974948898806,
            -12.589900124386844,
            -7.659023377800929,
            -7.145704106534457,
            -5.950942554334749,
            -0.0579820190549508,
            6.009458565924867,
            -2.328089935425904,
            0.8296772416935778,
            10.608413701819432,
            -0.1207485065023678,
            12.641912515911823,
            3.82007756870882,
            -0.33891829976604526,
            -6.621943869681989,
            10.32524235579804
        ],
        [
            14.748772176962078,
            -2.135633710694344,
            0.04853363986452525,
            1.6390716405486945,
            4.90539921149416,
            2.871041068375806,
            2.4143920277049236,
            -7.8345393493865965,
            0.5708651115786598,
            0.009242743095211307,
            3.666050243082742,
            -4.002600661907008,
            -18.148487578536407,
            -5.976124960408195,
            -0.21150791879170053,
            20.517153712103877,
            -1.0073222963118735,
            14.233707741371969,
            1.2331762058281603,
            -6.263895743901373
        ],
        [
            0.5515469396124889,
            0.9824887180218687,
            -0.6380784068808824,
            -0.34531202004191597,
            -0.20476416882923484,
            -0.14657497477854597,
            -0.7295121988678687,
            0.9212805474520762,
            -0.3561685098606407,
            0.1040579517188392,
            -4.7443933396301095,
            0.7355923638988879,
            0.590347892702472,
            -1.3071881524293398,
            0.7887743239631342,
            -1.4116817984942185,
            0.4242160452573788,
            -0.49331122030400326,
            0.128589655365602,
            -1.359936736299138
        ],
        [
            5.485076907412287,
            4.734142478537642,
            -5.326646515371507,
            -4.992566683977055,
            -6.266879957798044,
            4.782943602524048,
            3.9694061947604053,
            -2.614503064241808,
            -7.217403367644329,
            0.04094825887374523,
            3.6856784489347145,
            -1.538281951566327,
            1.6414508013727158,
            4.437815476068463,
            0.36667571814640043,
            -3.1214099810415474,
            0.4720883022580458,
            -1.7600040906573544,
            3.0050360360077977,
            0.6430637600018083
        ],
        [
            -0.4580282565056172,
            -1.1883493560896399,
            -1.0388280479605654,
            0.8722759538892138,
            -0.3276224037836123,
            -0.07454728265333926,
            0.385572653977532,
            0.1346383936166106,
            -1.3988031398062515,
            -0.06697922731602829,
            0.9692850012974765,
            0.690152873592164,
            0.9983636833565893,
            0.12606127726486985,
            0.1144642304939048,
            -1.1298860569051294,
            -0.4311313895038705,
            0.5640125450546489,
            0.8627043262501966,
            -0.1515217174925997
        ],
        [
            0.8410199453499886,
            -0.4102831840756467,
            0.5349995807970109,
            -0.08052202207033676,
            0.36387194565271486,
            0.5805948072963195,
            0.8547300939215039,
            -0.46536001502967733,
            1.3927650223219386,
            -0.08930529564580955,
            -10.090154098242103,
            -0.7716024592256036,
            -0.21520870437952808,
            -1.3956289916294402,
            -0.24511409492144112,
            -0.13954148768091676,
            0.6274887125928836,
            0.08083119390730568,
            -1.2432181665024788,
            -1.4595628584876326
        ],
        [
            -6.419350485508524,
            -8.29074606349158,
            -0.3597720386132869,
            -5.016841235849522,
            11.681759465668327,
            -9.596020889721958,
            4.772414323691847,
            -1.3877788402910303,
            14.211347418565484,
            0.16115634137364532,
            -2.9016661594493534,
            -8.910759392932782,
            10.458927855015235,
            -4.161143466198179,
            0.135148346522642,
            -5.914663430292656,
            -6.098965581574181,
            -4.377432254527953,
            0.7584881793192145,
            -16.69641778998817
        ],
        [
            0.5304309764997712,
            -0.4345501501095925,
            0.4722212495849285,
            -0.13175653801904222,
            -1.2491532066450668,
            -0.33145818175984965,
            -0.6152921033762725,
            0.2032469517488802,
            0.9779881361153795,
            -0.028672947072674947,
            0.33511609710194407,
            -0.621925796078482,
            0.3911366096521741,
            0.18173112310787304,
            0.031093073422474735,
            0.16795424809962112,
            0.13494402915862838,
            -0.030889934867061493,
            -0.3344618142913129,
            -0.3880873846274022
        ],
        [
            -0.4416721092272283,
            -1.4243414089171027,
            -2.02839892368857,
            2.1744148083614667,
            -0.761332221276359,
            5.453154545706093,
            -1.3666865431637258,
            -2.3711934183564383,
            0.18805738273876876,
            0.7348578604127946,
            0.1175640349078951,
            -2.560512259575637,
            -0.4677314770832707,
            -1.1404689798140915,
            0.03313310223429597,
            -1.0408294034300876,
            -2.663001765845519,
            -3.5710637219920263,
            0.5640142582545938,
            0.5874717287067809
        ],
        [
            -0.2399289133204454,
            0.01775830928232798,
            -0.5139627067511333,
            0.0007843230836852627,
            -0.06002620800819275,
            -0.6633799687423283,
            -0.26938424652818377,
            0.3110279855713871,
            -0.557086835366741,
            -0.7403409555205205,
            -0.4100002859620144,
            0.41676823158950227,
            -0.20025658027186666,
            -0.12996461166123374,
            0.5740236075795111,
            0.0015129684271144915,
            0.09185210824341479,
            0.5125633798967777,
            0.11287343462269746,
            0.27515802044521376
        ]
    ],
    "b2": [
        [
            1.1872378558510681
        ],
        [
            1.0887428293162416
        ],
        [
            0.23550955591743933
        ],
        [
            -12.206916707073425
        ],
        [
            -0.4827139482942676
        ],
        [
            7.635134804472642
        ],
        [
            0.05730974271337635
        ],
        [
            -4.229872967984485
        ],
        [
            0.6852716826195114
        ],
        [
            3.3797192599952712
        ],
        [
            -2.908016040247075
        ],
        [
            1.5690616661890024
        ],
        [
            -11.589898063974898
        ],
        [
            0.17349351066228846
        ],
        [
            -0.8167753869316375
        ]
    ]
}