{
    "w1": [
        [
            -0.3290336433285537,
            0.011988020820101154,
            -0.2608667119556116,
            -0.3025273463081271,
            0.10565493195361698,
            -0.32743149147023637,
            0.3005405403680161,
            -0.21306919132174754,
            -0.5135919426850045,
            -0.3223564535269205,
            -0.2596530088166765,
            0.448490809147828,
            -0.37232844891139155,
            0.08006924187958953,
            -0.3488176523683277,
            0.25536374501811926,
            -0.10260176045412618,
            -0.6487477225363465,
            -0.16744885706807183,
            0.09077935787513174,
            0.08865767865795168
        ],
        [
            -7.9154417984111305,
            -2.432341313765569,
            -1.322256428479675,
            5.193951234332646,
            14.532746055633934,
            4.118703361337363,
            0.5958906371691192,
            -12.226171486298346,
            5.475809390355924,
            -0.7939085416485226,
            -8.294649491247316,
            -2.066628914667762,
            -0.7622904932921145,
            5.344677351057353,
            -0.08180954317287006,
            -0.6703224225519319,
            0.014012965336193225,
            -0.400131516853383,
            1.1429349643082267,
            -6.671350897752134,
            0.16575125306557992
        ],
        [
            -1.086421337110204,
            -0.13200660829523478,
            -1.4649132386779116,
            0.2914668725174683,
            -0.06845360966508214,
            25.170110596325074,
            15.228295540284039,
            5.461620453070648,
            -4.422879335066519,
            6.93020584791466,
            -0.9629882575236132,
            0.07784280959205005,
            -1.670539010490492,
            1.431563969755241,
            0.4308566745965556,
            -0.41775403434018754,
            0.5512850587059854,
            -3.3167254562022435,
            -1.4335222012753273,
            8.132485281888702,
            0.9847503638762661
        ],
        [
            -4.737941988858462,
            -2.7455038904024374,
            0.059615989509946385,
            -1.153636544580472,
            5.881970520185003,
            -0.2953028686587685,
            9.149350452258556,
            5.101347447534671,
            -0.8868355493781941,
            -1.3408210485857264,
            -4.933035365414691,
            -2.9975812072679076,
            0.43422601845401715,
            -1.1911396557338698,
            -0.12888164330518764,
            0.22392820422840384,
            0.32604470411717307,
            6.391702897826617,
            0.6576515291312147,
            -0.2249168942912775,
            0.31891291090090795
        ],
        [
            -1.2260131423993685,
            -2.8420694052068205,
            0.2672557252109037,
            0.29301214147260196,
            3.9378506035329446,
            -3.6911812834701014,
            2.18140403833327,
            -18.764323842716284,
            0.2666083714837889,
            5.055616236997031,
            -1.2742193549412018,
            -2.9178453056039024,
            1.3645743019509184,
            -0.17331369185418327,
            0.10660509171604578,
            0.4587897828072678,
            0.2977842206340299,
            -1.955732261654808,
            0.7800823629643852,
            1.7105323514489277,
            0.5934605446861061
        ],
        [
            -6.127128760830796,
            -2.3703688979651285,
            0.8908876632009788,
            7.359514407228325,
            11.428547030334226,
            -1.4895766931569574,
            2.0147630854469862,
            -0.6232974573178747,
            -2.2396675078208212,
            -2.511371351050478,
            -6.143216496458344,
            -2.5142410759693847,
            1.103565412031098,
            7.687298237259712,
            0.25494108917599556,
            -0.19621785698251643,
            0.16635819543164002,
            -0.5937154414975544,
            -0.42050686400079307,
            -13.365666931275015,
            0.5111069964633194
        ],
        [
            0.2505287223042721,
            -1.2098111264428049,
            -0.752739286493761,
            -0.05552419894757277,
            -6.890351602364234,
            12.251709408587335,
            3.676296459351816,
            -12.710458693033322,
            -2.992482995089341,
            12.183862012718409,
            -0.5102921598422188,
            -0.23532194944121942,
            -0.7374702652957166,
            0.6200060158165929,
            0.08129457214468806,
            -0.08621972931710326,
            -0.20982272596677978,
            1.9636382616870993,
            2.056548408228247,
            -5.084030654660648,
            -0.5571634104784826
        ],
        [
            5.381824706932554,
            0.5423719536642647,
            -4.703557276464349,
            1.2885585379343922,
            -6.45813420812064,
            -5.2714196019022115,
            3.993277835550519,
            18.439139201763812,
            0.16206368779086042,
            -6.814378483317368,
            5.156225452311021,
            0.8805242258609645,
            -4.296362032381658,
            0.9519037749984026,
            -0.5861625594207102,
            -0.10038175059466849,
            -0.23472909282604498,
            -0.91909136749829,
            6.471236653094531,
            -1.013169830099689,
            0.7164091971792412
        ],
        [
            4.946919201209307,
            4.931336885128565,
            -6.697656894952766,
            2.229237430946786,
            -7.285935116447211,
            -3.2096974257223776,
            -7.587196675770405,
            1.873596497444658,
            -4.012801079116657,
            8.423225561191982,
            5.342828705108838,
            4.264729147193568,
            -6.216190129965949,
            2.531351815813766,
            0.1229588458483717,
            -0.02242330321327025,
            -0.43273714197725505,
            1.0204518049942148,
            5.885245293059366,
            -4.008231876048416,
            -0.09405203672792692
        ],
        [
            5.289240634197959,
            -3.750163689475723,
            0.9396199830611549,
            -0.5930731405545842,
            2.442620442747508,
            -6.775161996042471,
            11.93012260207747,
            -5.619133928316716,
            6.865364358890754,
            -2.7941734145006993,
            5.5124830817884485,
            -4.050979105325922,
            0.9098059840141342,
            -1.2934594879975996,
            -0.5073193048250739,
            -0.175115164699141,
            0.5195052004035442,
            -2.179489161837782,
            -3.41601508995444,
            2.6053186674542617,
            -0.17935692762906216
        ],
        [
            -0.007024318576018731,
            -0.5072903245705493,
            0.06873548854848069,
            0.01635053027565118,
            -0.14016874239107907,
            -0.15117578031397755,
            -0.1769361101896779,
            0.17900520709522436,
            0.3080300027161884,
            -0.4698036571632766,
            -0.3815518648682513,
            0.10469538898635715,
            -0.26726000237358305,
            -0.17261188638864294,
            0.05992391801763598,
            0.11487885739333836,
            0.21487877289638707,
            -0.17029177785893884,
            -0.2521132179981101,
            0.014206818092184771,
            0.7108338480894546
        ],
        [
            -3.6806613735719647,
            -4.844290653056822,
            -1.5039480814625092,
            0.18164958346584756,
            7.5660078011690235,
            0.18010882806946218,
            8.899257893238435,
            7.510196068692984,
            0.35378860194535133,
            -14.925491342682047,
            -4.665090381751596,
            -4.321924551864749,
            -1.6413849120130652,
            -0.5608225914420466,
            0.01304541716047411,
            -0.4531918346909368,
            -0.15107687846916895,
            3.714413045780571,
            3.957278106420979,
            -1.1201111103355303,
            -0.7570087702504096
        ],
        [
            -0.2432103831071259,
            -0.3232547846536561,
            0.11709115483234515,
            -0.05548092249562634,
            -0.12586297309493485,
            0.887761641570967,
            0.08400123536963543,
            -0.0034098333633267833,
            0.35282437078476386,
            0.13186451472780936,
            0.22051132490522843,
            -0.6305673121223307,
            -0.36209618895321133,
            0.3485122088536856,
            0.2804394310781366,
            0.14958421509142164,
            -0.017742973904996972,
            -0.5584225834117923,
            -0.7103830624681632,
            -0.12682147181063005,
            0.0720130856635117
        ],
        [
            0.41764453413068536,
            -0.3194808391231298,
            -0.3172540751036023,
            3.987731551502027,
            -2.1882261655522046,
            10.820124770664654,
            1.4478179045497148,
            12.731974092538502,
            -20.267643842179556,
            -0.5170891124421904,
            0.6201895549383388,
            0.2080396730904659,
            -0.68625802301845,
            4.818522197569684,
            0.17331299992231433,
            -0.21511209105938195,
            0.15171537351280773,
            -3.9585303303685917,
            -1.1948128386865093,
            2.060458976922929,
            -0.4508072465074151
        ],
        [
            3.4633574803006333,
            -2.0127800243642273,
            0.15356319468644158,
            -0.8180113539200317,
            7.719783375498437,
            -2.3632070334163595,
            -7.573969327395928,
            5.5082237192217764,
            -3.4647226790709835,
            16.66278471718796,
            3.1505238943545764,
            -2.8610048943205357,
            0.283948345021707,
            -0.022642462556468564,
            -0.5722796228080675,
            0.5002578897848207,
            -0.011740139728659947,
            -0.5402482705317316,
            -0.6956530916770532,
            -7.497032822869454,
            0.023796653213589616
        ],
        [
            -2.435146558791065,
            0.1400394694990208,
            0.1462217230412369,
            -0.5639928344604548,
            0.14733560503506177,
            -14.787627490496487,
            -6.85704687497235,
            -8.598593190565486,
            1.4087025466177696,
            6.426843274804535,
            -2.0648477848882267,
            0.7608780327152487,
            0.4490464255648663,
            -0.6888959855034288,
            -0.12178213321666613,
            0.008741314705826385,
            -0.5446159507851878,
            3.0644892476763816,
            -2.9393844199626677,
            3.3114765405245326,
            -0.5177797938276132
        ],
        [
            0.5023203561527877,
            -0.1479041020329893,
            2.374706811349916,
            -1.4494877164331226,
            -5.980671265900926,
            -8.612634005729275,
            3.3320751322810827,
            3.536838340367959,
            -11.393660526377207,
            -8.230484499719736,
            1.5086584273047552,
            0.4957700616674709,
            1.853544439835286,
            -1.5475983028884617,
            0.2230522146976194,
            0.2022452558751396,
            -0.032325209731818835,
            2.4077557725887906,
            0.7653885766243456,
            -2.187124551830132,
            0.46420507930694255
        ],
        [
            2.0679900249403746,
            1.3966902729378226,
            -1.268039401071575,
            2.503072989113226,
            -2.786947777059656,
            2.987763997549696,
            7.022148829777562,
            -0.17797458603547162,
            4.286922209933942,
            17.132794251853564,
            2.544765705452478,
            1.9258072947577456,
            -1.6709283711012126,
            2.5061349722570925,
            -0.10378070381403878,
            -0.2370441134015099,
            -0.2725687364856473,
            1.4164896687277415,
            -0.19543616326520674,
            -9.485399990412988,
            0.18500555403068852
        ],
        [
            -0.9715352773835975,
            -2.1984378582256925,
            3.05100241398231,
            -2.2001862393914067,
            -2.6592424953486424,
            1.5443812208136418,
            11.269302054524632,
            8.40706899583047,
            -2.7148872568622915,
            -7.90782857529404,
            -1.2055689838467532,
            -2.553435214262962,
            3.489487402673623,
            -2.59198855002807,
            0.2314739658602907,
            0.11219170282911796,
            -0.3646478527816516,
            2.6900227573219153,
            0.8261458009932627,
            0.12180375947358275,
            -0.46482104124095486
        ],
        [
            -0.1702653777826722,
            0.8532170734519178,
            0.13121885025190685,
            -0.7318173635042959,
            -2.167960670282226,
            -13.03784827214452,
            -8.729783475727535,
            -4.769751615454792,
            -9.276557110897857,
            -0.9567053441577196,
            -0.24192510819674656,
            0.3142242016035677,
            0.5207671496949091,
            -0.7617738318861361,
            -0.007478330122160122,
            -0.22141685526523575,
            -0.09081668884057202,
            3.5222989037323313,
            0.6080268639193088,
            -0.6536994321493387,
            -0.7372779267228299
        ]
    ],
    "b1": [
        [
            -0.009468253834634784
        ],
        [
            0.12996450554651873
        ],
        [
            -4.643992109879916
        ],
        [
            6.901295132180087
        ],
        [
            -1.754062297643843
        ],
        [
            -0.8956766158096489
        ],
        [
            4.025562647899978
        ],
        [
            4.933748039642201
        ],
        [
            6.441336474001593
        ],
        [
            -5.363959096464414
        ],
        [
            0.0
        ],
        [
            7.410317000614585
        ],
        [
            0.0
        ],
        [
            -5.147191193929572
        ],
        [
            -0.5406382921619813
        ],
        [
            0.2875283182204737
        ],
        [
            3.181711824246366
        ],
        [
            0.6471990725614347
        ],
        [
            3.4813601408474626
        ],
        [
            4.194747463122975
        ]
    ],
    "w2": [
        [
            0.3067318710939377,
            -0.22373651764781496,
            -0.28535354001533025,
            -0.20563963935496957,
            0.35332384200522865,
            -4.138505658626662,
            -1.2192331428876575,
            -0.1266646099781753,
            0.4107534393088143,
            -0.053459705339865465,
            -0.5485648888234923,
            0.200871743863624,
            -0.3279537177377772,
            -2.516988496013822,
            0.551927457921869,
            1.458096983226937,
            0.39369342184279693,
            1.4917477777841546,
            0.8773160136191934,
            -1.0875347705012028
        ],
        [
            -0.06365674692469431,
            -0.2383014179644144,
            -1.1518002236502816,
            1.308903008906005,
            1.8292396873818138,
            -1.5779547450313312,
            3.728044210081735,
            4.079009661748913,
            -4.227645774704377,
            -5.1329815110035195,
            0.1688857908945091,
            -0.9455081358523625,
            0.005074720021505857,
            -2.397929988620773,
            5.806335730589911,
            0.33056042170104416,
            1.8373614953678512,
            -1.9814290943556283,
            -4.41465976359173,
            3.990410550055045
        ],
        [
            -0.09587312382076507,
            -0.47361135475382643,
            2.2669220992540042,
            2.110667588157381,
            -0.3781492187918179,
            0.6649519515890767,
            -3.4638211804474763,
            1.9285112589967959,
            -1.5390405084438437,
            -0.8399260265606736,
            0.3187249615642026,
            -2.280208980045022,
            0.17273615328771555,
            -0.9048508804710512,
            0.7525926583418511,
            1.2172310667299286,
            0.7842966277828342,
            2.1552143475589536,
            -0.9177008338879935,
            -2.4813188870354623
        ],
        [
            0.22065419821135213,
            -0.640161294215538,
            0.15678047206298454,
            -2.8271758567234198,
            -2.7847070506827154,
            1.768290715205672,
            0.8730727033075457,
            -1.8890425485303448,
            1.531846621805242,
            0.4215898670868328,
            0.5789767425010948,
            2.609397334084251,
            -0.2650984208173695,
            -1.0618134326953594,
            0.19051965044287147,
            2.6442851604270214,
            0.018025740952994813,
            0.12057954105248256,
            1.504573740354825,
            -0.8242013524762116
        ],
        [
            -0.7664136485663396,
            -1.8745648169929137,
            -5.703486514426521,
            7.978692518127308,
            7.356457436347988,
            -20.250505330361456,
            -1.296655029963083,
            -4.425903315806332,
            2.294870375784255,
            4.629129852277034,
            -0.1420412984307506,
            -3.990678423956646,
            0.3658094805408814,
            9.815972809178312,
            -2.726454157761257,
            -3.3399008359354414,
            13.465690120857062,
            4.378856071548571,
            -7.69482987992773,
            -11.345582980704103
        ],
        [
            0.17271749171778591,
            -7.185381933052915,
            -6.7190377371573575,
            -1.8732061531171842,
            -8.066025108071765,
            8.149809946462751,
            10.648102961589592,
            -9.86285769351427,
            5.927409640959123,
            12.201847127181127,
            0.20396855119383056,
            6.45191272254866,
            0.09352522420400687,
            5.254801510760251,
            -15.991012859305233,
            -14.975402755670096,
            -0.04181224052212816,
            -2.6155050890009304,
            -2.625795352102027,
            3.9518194899456094
        ],
        [
            -0.1671705690869023,
            -3.6795378935956187,
            -11.782952543956181,
            -2.2387946392180225,
            10.747853666991386,
            2.9596686255358025,
            6.63072447277319,
            -1.2522649420239385,
            -0.596181295141086,
            4.872218197302367,
            -0.02762530566057126,
            4.831495293619978,
            0.0412319494399313,
            10.920553255524764,
            -8.926556844442638,
            0.2769167158092664,
            4.135193472900073,
            -14.965431207023634,
            -8.262773489862813,
            9.03694920481645
        ],
        [
            0.156627879534193,
            0.30094399254368337,
            0.8161104271393207,
            -1.1378253300400767,
            -0.6097366665478693,
            0.09938894269302817,
            -0.1040588711607413,
            0.09664347042018491,
            -0.6045448393090815,
            -0.43794142267061276,
            -0.3186683928263464,
            0.408366152082901,
            0.22355783064212828,
            -21.063860402108883,
            -0.18362433066774514,
            -0.8945508482095981,
            -1.0282140194701876,
            1.4000584073350992,
            0.06283520442279215,
            1.4567671054222728
        ],
        [
            -0.04199113618449714,
            9.075629488333744,
            -11.496312030770104,
            -0.49567925176029987,
            0.5243951713682262,
            2.7118450570356076,
            -1.3059804452384471,
            -2.958931942354465,
            2.8150965681421574,
            -0.5156941712626243,
            0.18067430317403196,
            -7.8476964839538494,
            -0.36839314511886806,
            -3.363566078504143,
            6.7416814759445955,
            9.940218931336153,
            -5.597770645844727,
            -0.3485941992097164,
            -1.1644299406481269,
            0.2825491929184307
        ],
        [
            -0.2760438137117454,
            -21.967635576398244,
            -2.1753287931954137,
            1.8385241582951914,
            12.483840000681743,
            -1.0678629757872458,
            0.1042164166221444,
            0.270963589853191,
            0.5306247617668979,
            0.8437064656672955,
            -0.07181253047969348,
            -1.0966087345010598,
            0.13866994612078198,
            2.0271231154742226,
            -5.845689652932684,
            1.7301915385806326,
            1.384509779027064,
            -14.798814017839721,
            -1.1923073274226623,
            -2.619066490790348
        ],
        [
            -0.0861961319116387,
            0.06927155289542306,
            0.638640703834479,
            2.25687804834832,
            1.933970924207806,
            -0.3627063851299195,
            0.23029836515139496,
            0.7075242462786304,
            -0.4928325169750897,
            0.2519167290228081,
            0.4080368044465258,
            -1.9856772185574763,
            0.01518723306204223,
            -0.3068463743951425,
            -0.5390961275014442,
            -1.4951859143822999,
            0.42458623567747755,
            -0.469775178964783,
            -0.7868034302456846,
            -0.29268662744972407
        ],
        [
            -0.019582981439513474,
            -1.3397515279049115,
            8.73863657032929,
            -0.9617906404017225,
            2.4664255877739127,
            1.8515058574224599,
            6.669046108388781,
            7.785515899005261,
            -9.329144916171709,
            -13.100874939999223,
            0.05381441346541154,
            -2.640442668509015,
            -0.02153230666718672,
            -5.300156049617238,
            -7.232534193540242,
            6.2425240175651915,
            -9.48621013260786,
            -3.598085502360275,
            -9.686395882264767,
            3.0812339581841224
        ],
        [
            0.0776881524728945,
            -0.2142879905503206,
            1.1118231071211044,
            0.33579568300419144,
            -3.618098267331014,
            0.022240677307323563,
            -0.8344655449152908,
            1.1421304514434523,
            -1.5110757365135061,
            0.16582613122680911,
            0.04711243955907654,
            -0.6067913815921769,
            -0.23069767413814643,
            -1.1445131293050619,
            -0.3154092358410071,
            -1.045278270541365,
            -0.38673495408649283,
            1.601825053314086,
            -1.099685408698021,
            1.343574607127779
        ],
        [
            0.6307963646734293,
            -3.16884138003232,
            -6.549862657204734,
            0.5300342925702011,
            -2.75740265953116,
            -0.500761420270599,
            0.1621871955287872,
            0.09689343403695859,
            -7.384901900659915,
            0.1358632377726393,
            0.6696115161501542,
            0.5944066283402523,
            0.006311133034084578,
            0.5037275715788399,
            1.0284387473983942,
            -3.095559979501915,
            -4.002166451464766,
            0.2518312128840754,
            1.0515926118454997,
            -4.901070814209079
        ],
        [
            -0.16540706684943823,
            1.2216278392959226,
            0.35791704087931203,
            -0.8240320047301839,
            -2.4674618780478434,
            -1.6296990681477728,
            -18.150451644297053,
            0.6367461375342127,
            -0.5327905760856578,
            -0.5620342536860956,
            -0.627150830555948,
            -0.07360788354533418,
            0.30510593591484797,
            -0.1397181976350926,
            1.3248592400921393,
            0.21113538918646088,
            -2.4495829786229697,
            -0.2248973552461704,
            1.1952799653283475,
            2.1349945049350993
        ]
    ],
    "b2": [
        [
            -7.042436296545146
        ],
        [
            -2.533043606504444
        ],
        [
            -4.583359375451736
        ],
        [
            -2.019568134709835
        ],
        [
            14.27566176982508
        ],
        [
            4.227095919991777
        ],
        [
            -1.693087475790378
        ],
        [
            2.4333323450342
        ],
        [
            -1.0719518874398122
        ],
        [
            -4.549830119084042
        ],
        [
            -5.8666216449511905
        ],
        [
            12.99707496430351
        ],
        [
            0.640539503771547
        ],
        [
            -1.5399929419080878
        ],
        [
            -4.988760910163862
        ]
    ]
}